svm_type c_svc
kernel_type rbf
gamma 0.1
nr_class 2
total_sv 115
rho 0.48643
label 1 -1
nr_sv 57 58
SV
1 1:-0.84 2:-0.898892 3:-0.829016 4:-0.720207 5:-1 6:-0.781815 7:-0.761804 8:-0.721182 9:-0.75541 10:-0.53909 
1 1:0.28 2:-0.650846 3:0.134715 4:-0.740933 5:-0.808184 6:-0.723414 7:-0.688659 8:-0.786133 9:-0.814607 10:0.134578 
1 1:0.372308 2:-0.467506 3:0.165803 4:-0.694301 5:-0.307692 6:-0.409133 7:-0.360468 8:-0.463926 9:-0.505675 10:0.31862 
1 1:-0.298462 2:-0.510807 3:-0.455959 4:-0.637306 5:-0.516165 6:-0.401431 7:-0.404163 8:-0.334447 9:-0.639393 10:0.64578 
1 1:0.587692 2:-0.51114 3:0.217617 4:-0.564767 5:-0.286445 6:-0.734965 7:-0.682682 8:-0.640056 9:-0.758791 10:0.248467 
1 1:0.92 2:-0.451148 3:0.694301 4:-0.761658 5:-0.727273 6:-0.667761 7:-0.536297 8:-0.611325 9:-0.716229 10:-0.123945 
1 1:0.92 2:-0.38577 3:0.481865 4:-0.549223 5:-0.858345 6:-0.317288 7:-0.468113 8:-0.490828 9:-0.279484 10:0.746875 
1 1:-0.876923 2:-0.873246 3:-0.813472 4:-0.766839 5:-0.923913 6:-0.736367 7:-0.854201 8:-0.846307 9:-0.778844 10:0.506386 
1 1:-0.778462 2:-0.815368 3:-0.860104 4:-0.637306 5:-1 6:-0.482819 7:-0.405858 8:-0.628456 9:-0.588312 10:-0.24734 
1 1:-0.501538 2:-0.706062 3:-0.564767 4:-0.699482 5:-0.713043 6:-0.575306 7:-0.620608 8:-0.649055 9:-0.451203 10:0.344131 
1 1:0.28 2:-0.57859 3:0.0362694 4:-0.642487 5:-0.244147 6:-0.572085 7:-0.510644 8:-0.497717 9:-0.548564 10:0.200447 
1 1:1 2:-0.877041 3:0.84456 4:-0.84456 5:-0.915332 6:-0.806427 7:-1 8:-0.977453 9:-0.94015 10:0.0773741 
1 1:-0.390769 2:-0.587312 3:-0.647668 4:-0.523316 5:-1 6:-0.658459 7:-0.667396 8:-0.655688 9:-0.67741 10:0.378808 
1 1:-0.944615 2:-0.934722 3:-0.911917 4:-0.725389 5:-0.654891 6:-0.818656 7:-0.905155 8:-0.922684 9:-0.896991 10:0.503953 
1 1:1 2:-0.28132 3:0.699482 4:-0.699482 5:-0.873188 6:-0.509147 7:-0.552926 8:-0.574533 9:-0.434956 10:0.0102129 
1 1:0.710769 2:-0.345276 3:0.471503 4:-0.715026 5:-0.977391 6:-0.377962 7:-0.563609 8:-0.558609 9:-0.490572 10:0.208715 
1 1:1 2:-0.383925 3:1 4:-1 5:-0.632246 6:-0.562649 7:-0.492723 8:-0.515995 9:-0.565509 10:-0.0529151 
1 1:1 2:-0.45603 3:0.756477 4:-0.756477 5:-0.745652 6:-0.441621 7:-0.552363 8:-0.610926 9:-0.635304 10:0.247388 
0.2613991540946944 1:1 2:-0.557475 3:0.699482 4:-0.699482 5:-0.824684 6:-0.47453 7:-0.401593 8:-0.308905 9:-0.292153 10:-0.0258587 
0.6535294226666388 1:-0.390769 2:-0.564295 3:-0.492228 4:-0.678756 5:0.773292 6:-0.52337 7:-0.43062 8:-0.484576 9:-0.566518 10:-0.138035 
1 1:-0.52 2:-0.760613 3:-0.497409 4:-0.782383 5:-0.0634058 6:-0.69187 7:-0.651516 8:-0.682055 9:-0.676521 10:0.103468 
1 1:0.92 2:-0.494486 3:0.533679 4:-0.601036 5:-0.640097 6:-0.595652 7:-0.555726 8:-0.511364 9:-0.463147 10:0.0719121 
1 1:0.156923 2:-0.672678 3:-0.0466321 4:-0.663212 5:-0.271739 6:-0.563668 7:-0.620247 8:-0.500131 9:-0.693645 10:0.587439 
1 1:-0.790769 2:-0.935548 3:-0.699482 4:-0.80829 5:-1 6:-0.709779 7:-0.789124 8:-0.812968 9:-0.750519 10:0.287671 
1 1:-0.6 2:-0.699497 3:-0.725389 4:-0.621762 5:-0.386957 6:-0.517906 7:-0.560216 8:-0.699291 9:-0.608904 10:0.693869 
1 1:0.587692 2:-0.24419 3:0.217617 4:-0.564767 5:0.768116 6:-0.708088 7:-0.619869 8:-0.590446 9:-0.642475 10:-0.0773124 
1 1:-0.366154 2:-0.477513 3:-0.430052 4:-0.720207 5:-0.978261 6:-0.494412 7:-0.263479 8:-0.13044 9:-0.3079 10:0.497854 
1 1:0.778462 2:-0.593098 3:0.549223 4:-0.735751 5:-0.943347 6:-0.532339 7:-0.535024 8:-0.559014 9:-0.52867 10:0.18452 
1 1:0.00923077 2:-0.651346 3:-0.129534 4:-0.704663 5:-0.877926 6:-0.68531 7:-0.731263 8:-0.55839 9:-0.769356 10:-0.0113403 
1 1:-0.876923 2:-0.921109 3:-0.818653 4:-0.761658 5:-0.646739 6:-0.679638 7:-0.868863 8:-0.924796 9:-0.869061 10:0.295682 
1 1:0.476923 2:-0.162968 3:0.124352 4:-0.564767 5:-0.922705 6:-0.462385 7:-0.339763 8:-0.28563 9:-0.37638 10:0.561071 
1 1:-0.581538 2:-0.706199 3:-0.65285 4:-0.678756 5:-0.344482 6:-0.815825 7:-0.998043 8:-1 9:-1 10:0.975171 
1 1:0.372308 2:-0.620132 3:0.160622 4:-0.689119 5:-0.608696 6:-0.602374 7:-0.669659 8:-0.614771 9:-0.416116 10:-0.0568557 
1 1:1 2:0.242148 3:0.305699 4:-0.305699 5:-0.913043 6:-0.417503 7:-0.470392 8:-0.358963 9:-0.417811 10:0.558669 
1 1:-0.766154 2:-0.848383 3:-0.678756 4:-0.80829 5:-1 6:-0.581694 7:-0.446548 8:-0.658948 9:-0.635159 10:-0.19982 
1 1:0.421538 2:-0.424204 3:0.0207254 4:-0.507772 5:-0.724638 6:-0.703904 7:-0.657071 8:-0.601531 9:-0.655395 10:0.0733033 
1 1:0.710769 2:-0.504798 3:0.455959 4:-0.699482 5:-0.811094 6:-0.492902 7:-0.67073 8:-0.663864 9:-0.563083 10:0.592538 
1 1:1 2:-0.947084 3:0.849741 4:-0.849741 5:-0.813464 6:-0.829881 7:-0.923511 8:-0.971777 9:-0.932224 10:0.0667037 
1 1:0.526154 2:-0.761704 3:0.419689 4:-0.818653 5:-0.168589 6:-0.654551 7:-0.448962 8:-0.323689 9:-0.591268 10:0.152995 
1 1:1 2:-0.394964 3:0.766839 4:-0.766839 5:-0.230435 6:-0.561639 7:-0.448979 8:-0.498052 9:-0.50786 10:0.411463 
1 1:0.372308 2:-0.659914 3:0.26943 4:-0.797927 5:-0.876812 6:-0.851904 7:-0.961659 8:-0.968693 9:-0.956056 10:-0.681009 
1 1:-0.224615 2:-0.625105 3:-0.331606 4:-0.699482 5:-0.8 6:-0.72637 7:-0.703626 8:-0.773011 9:-0.70004 10:0.237605 
1 1:0.587692 2:-0.705888 3:0.487047 4:-0.834197 5:-0.573633 6:-0.660376 7:-0.792525 8:-0.827327 9:-0.713933 10:0.369525 
1 1:0.846154 2:-0.552999 3:0.559585 4:-0.689119 5:-0.293478 6:-0.667819 7:-0.628583 8:-0.62758 9:-0.558488 10:0.0755717 
1 1:0.236923 2:-0.570814 3:0.19171 4:-0.834197 5:-0.240409 6:-0.731373 7:-0.669203 8:-0.710031 9:-0.646937 10:-0.465428 
1 1:0.421538 2:-0.351176 3:-0.11399 4:-0.373057 5:-0.18323 6:-0.574682 7:-0.331784 8:-0.100839 9:-0.53879 10:0.49881 
1 1:0.372308 2:-0.651512 3:0.202073 4:-0.73057 5:-0.446777 6:-0.593265 7:-0.625954 8:-0.548345 9:-0.534459 10:0.11985 
1 1:-0.298462 2:-0.564708 3:-0.559585 4:-0.533679 5:-0.899868 6:-0.515878 7:-0.542723 8:-0.53953 9:-0.597704 10:-0.0864819 
1 1:-0.464615 2:-0.641831 3:-0.362694 4:-0.870466 5:-0.596838 6:-0.490592 7:-0.456179 8:-0.436516 9:-0.376417 10:0.0894562 
1 1:0.92 2:-0.296811 3:0.523316 4:-0.590674 5:-0.782609 6:-0.525942 7:-0.394105 8:-0.386732 9:-0.541137 10:0.37596 
1 1:-0.550769 2:-0.586459 3:-0.865285 4:-0.440415 5:-1 6:-0.415023 7:-0.573592 8:-0.70686 9:-0.297882 10:0.590581 
1 1:-0.550769 2:-0.694061 3:-0.46114 4:-0.84456 5:-0.729469 6:-0.792631 7:-0.6111 8:-0.618021 9:-0.753612 10:-0.0332156 
1 1:1 2:-0.28795 3:0.751295 4:-0.751295 5:-0.673913 6:-0.510844 7:-0.366556 8:-0.529093 9:-0.501057 10:0.337541 
1 1:-0.569231 2:-0.692098 3:-0.331606 4:-0.989637 5:0.04 6:-0.685552 7:-0.444413 8:-0.463406 9:-0.541195 10:0.323756 
1 1:0.92 2:-0.379526 3:0.818653 4:-0.88601 5:-0.726867 6:-0.325397 7:-0.287765 8:-0.26027 9:-0.326251 10:0.696003 
1 1:-0.0276923 2:-0.293565 3:-0.290155 4:-0.57513 5:-0.913043 6:-0.442366 7:-0.313662 8:-0.299641 9:-0.408279 10:0.568908 
1 1:-0.390769 2:-0.568813 3:-0.65285 4:-0.518135 5:-0.891304 6:-0.584615 7:-0.588876 8:-0.635191 9:-0.672044 10:0.273834 
-1 1:0.323077 2:-0.70268 3:0.295337 4:-0.865285 5:-0.206522 6:-0.932873 7:-0.87717 8:-0.768717 9:-0.90198 10:0.0226892 
-1 1:-0.655385 2:-0.949529 3:-0.481865 4:-0.911917 5:-0.878261 6:-0.822459 7:-0.769425 8:-0.709776 9:-0.75453 10:0.218594 
-1 1:1 2:-0.127198 3:0.896373 4:-0.896373 5:-0.874142 6:-0.751368 7:-0.597001 8:-0.605096 9:-0.695294 10:0.468533 
-0.3692791153857641 1:0.372308 2:-0.21853 3:0.378238 4:-0.906736 5:-0.886957 6:-0.919637 7:-0.907473 8:-0.814959 9:-0.893325 10:0.316327 
-1 1:0.710769 2:-0.58843 3:0.367876 4:-0.611399 5:-0.0434783 6:-0.843113 7:-0.800657 8:-0.805367 9:-0.763466 10:0.132892 
-1 1:0.649231 2:-0.692735 3:0.476684 4:-0.772021 5:-0.89372 6:-0.84689 7:-0.681907 8:-0.553251 9:-0.800129 10:0.0936743 
-1 1:1 2:-0.540425 3:0.740933 4:-0.740933 5:-1 6:-0.536223 7:-0.432081 8:-0.525713 9:-0.615663 10:0.765433 
-1 1:-0.630769 2:-0.973697 3:-0.523316 4:-0.849741 5:-0.809783 6:-0.848301 7:-0.704985 8:-0.724205 9:-0.749046 10:0.392877 
-1 1:1 2:1 3:-1 4:1 5:-1 6:-0.900526 7:-0.841453 8:-0.658362 9:-0.772224 10:0.298194 
-1 1:0.710769 2:-0.187279 3:0.554404 4:-0.797927 5:-0.47504 6:-0.867022 7:-0.709421 8:-0.744951 9:-0.837168 10:0.559481 
-1 1:-0.981538 2:-0.957883 3:-0.896373 4:-0.772021 5:-1 6:-0.583213 7:-0.713005 8:-0.859545 9:-0.44973 10:0.226235 
-1 1:0.649231 2:-0.325008 3:0.590674 4:-0.88601 5:-0.943289 6:-0.855199 7:-0.697319 8:-0.695731 9:-0.778083 10:0.529413 
-1 1:-0.84 2:-0.886872 3:-0.849741 4:-0.699482 5:-0.530435 6:-0.853629 7:-0.649553 8:-0.455901 9:-0.818551 10:0.184938 
-1 1:1 2:-0.512949 3:0.84456 4:-0.84456 5:0.117057 6:-0.665006 7:-0.498873 8:-0.440121 9:-0.514413 10:0.560615 
-1 1:-1 2:-1 3:-0.92228 4:-0.761658 5:0.0732266 6:-0.863661 7:-0.87281 8:-0.823643 9:-0.930268 10:0.10038 
-0.03484610865013349 1:1 2:-0.421884 3:0.937824 4:-0.937824 5:-0.939614 6:-0.821394 7:-0.736871 8:-0.642028 9:-0.73133 10:0.423021 
-1 1:0.587692 2:-0.70268 3:0.523316 4:-0.870466 5:-0.2657 6:-0.661819 7:-0.675688 8:-0.626745 9:-0.606147 10:0.658636 
-1 1:1 2:-0.123564 3:0.963731 4:-0.963731 5:-0.0496894 6:-0.682029 7:-0.655539 8:-0.731713 9:-0.546692 10:0.548986 
-1 1:0.587692 2:-0.50061 3:0.53886 4:-0.88601 5:-0.40665 6:-0.751584 7:-0.691917 8:-0.617385 9:-0.766101 10:-0.149158 
-1 1:0.92 2:-0.0528087 3:0.818653 4:-0.88601 5:-0.242236 6:-0.905795 7:-0.833484 8:-0.660993 9:-0.794124 10:0.410754 
-1 1:-0.144615 2:-0.957286 3:-0.11399 4:-0.849741 5:-0.850242 6:-0.822307 7:-0.825625 8:-0.759153 9:-0.756757 10:0.217336 
-1 1:-0.569231 2:-0.868771 3:-0.492228 4:-0.829016 5:-0.693841 6:-0.880526 7:-0.916356 8:-0.945005 9:-0.870521 10:-0.0470419 
-1 1:0.92 2:-0.681936 3:0.766839 4:-0.834197 5:-0.749068 6:-0.768847 7:-0.620147 8:-0.690013 9:-0.751615 10:0.408609 
-1 1:1 2:-0.55648 3:0.797927 4:-0.797927 5:-0.52657 6:-0.703513 7:-0.529765 8:-0.418089 9:-0.705929 10:0.279344 
-1 1:-0.409231 2:-0.707043 3:-0.367876 4:-0.818653 5:-0.0736325 6:-0.622796 7:-0.589144 8:-0.664746 9:-0.69469 10:0.394861 
-1 1:-0.501538 2:-0.529266 3:-0.891192 4:-0.373057 5:-1 6:-0.59146 7:-0.441122 8:-0.369423 9:-0.601173 10:0.235929 
-1 1:1 2:-0.582758 3:0.84456 4:-0.84456 5:-0.836384 6:-0.49912 7:-0.560315 8:-0.565721 9:-0.632329 10:0.131243 
-1 1:-0.427692 2:-0.485121 3:-0.642487 4:-0.559585 5:-0.369565 6:-0.787845 7:-0.634555 8:-0.550449 9:-0.828037 10:0.839588 
-1 1:0.778462 2:-0.461376 3:0.663212 4:-0.849741 5:-0.988225 6:-0.692169 7:-0.768937 8:-0.822933 9:-0.80177 10:0.40058 
-1 1:0.846154 2:-0.691953 3:0.564767 4:-0.694301 5:-0.493789 6:-0.703018 7:-0.656494 8:-0.711309 9:-0.78413 10:0.0940787 
-0.7330987201932004 1:0.92 2:-0.450414 3:0.849741 4:-0.917098 5:0.12532 6:-0.798537 7:-0.829643 8:-0.797474 9:-0.79728 10:0.347804 
-1 1:-0.753846 2:-0.830425 3:-0.756477 4:-0.720207 5:-0.537842 6:-0.747112 7:-0.679173 8:-0.592799 9:-0.760649 10:-0.018447 
-1 1:0.587692 2:-0.984794 3:0.445596 4:-0.792746 5:-1 6:-0.4401 7:-0.619195 8:-0.750065 9:-0.6864 10:0.342263 
-1 1:-0.390769 2:-0.473932 3:-0.740933 4:-0.430052 5:-1 6:-0.827635 7:-0.678372 8:-0.672855 9:-0.848168 10:0.897603 
-1 1:-0.870769 2:-0.935088 3:-0.725389 4:-0.849741 5:-0.596522 6:-0.832676 7:-0.790269 8:-0.800577 9:-0.918551 10:0.0729264 
-1 1:0.28 2:-0.759692 3:0.165803 4:-0.772021 5:-0.835885 6:-0.576535 7:-0.591268 8:-0.685838 9:-0.671669 10:0.606885 
-0.7777046325322349 1:-0.901538 2:-0.961583 3:-0.84456 4:-0.756477 5:-0.742609 6:-0.829377 7:-0.796315 8:-0.762117 9:-0.862114 10:0.382878 
-1 1:0.476923 2:-0.788255 3:0.367876 4:-0.80829 5:-0.828922 6:-0.650231 7:-0.585637 8:-0.485474 9:-0.7034 10:0.695287 
-1 1:-0.550769 2:-0.718966 3:-0.647668 4:-0.658031 5:-0.59375 6:-0.800792 7:-0.802148 8:-0.676445 9:-0.802453 10:0.413361 
-1 1:-0.366154 2:-0.814421 3:-0.274611 4:-0.875648 5:-0.951407 6:-0.678884 7:-0.7309 8:-0.815138 9:-0.700052 10:0.627283 
-1 1:0.778462 2:-0.719872 3:0.580311 4:-0.766839 5:-1 6:-0.770718 7:-0.61733 8:-0.812232 9:-0.691773 10:0.500027 
-1 1:0.92 2:-0.736921 3:0.782383 4:-0.849741 5:-0.382764 6:-0.650937 7:-0.631441 8:-0.58428 9:-0.598736 10:0.545429 
-1 1:-0.655385 2:-0.647781 3:-0.860104 4:-0.533679 5:-0.594203 6:-0.651211 7:-0.626115 8:-0.773045 9:-0.769353 10:0.445708 
-1 1:0.372308 2:-0.593538 3:0.26943 4:-0.797927 5:-0.926276 6:-0.776615 7:-0.716153 8:-0.747431 9:-0.796893 10:0.107059 
-1 1:0.236923 2:-0.925251 3:0.165803 4:-0.80829 5:-0.695652 6:-0.731123 7:-0.701682 8:-0.519117 9:-0.844631 10:0.275935 
-1 1:0.526154 2:-0.561796 3:0.38342 4:-0.782383 5:-0.889055 6:-0.705155 7:-0.613371 8:-0.680846 9:-0.728692 10:0.227729 
-1 1:0.526154 2:-0.731025 3:0.38342 4:-0.782383 5:-0.918478 6:-0.521414 7:-0.419633 8:-0.331515 9:-0.525052 10:0.772423 
-1 1:0.476923 2:-0.818546 3:0.362694 4:-0.803109 5:-0.765217 6:-0.58891 7:-0.434274 8:-0.563959 9:-0.718772 10:0.124856 
-1 1:-0.889231 2:-0.950467 3:-0.720207 4:-0.870466 5:-0.873706 6:-0.709835 7:-0.558335 8:-0.635527 9:-0.776234 10:0.639293 
-1 1:0.92 2:-0.690666 3:0.761658 4:-0.829016 5:-0.853913 6:-0.534137 7:-0.453134 8:-0.483838 9:-0.560046 10:0.0488066 
-1 1:-0.483077 2:-0.747535 3:-0.523316 4:-0.725389 5:-0.667391 6:-0.725733 7:-0.716238 8:-0.76271 9:-0.711931 10:0.317708 
-1 1:-0.655385 2:-0.649969 3:-0.870466 4:-0.523316 5:-1 6:-0.713939 7:-0.667527 8:-0.692619 9:-0.831402 10:0.416007 
-1 1:-0.409231 2:-0.760189 3:-0.34715 4:-0.839378 5:-0.514066 6:-0.803973 7:-0.630984 8:-0.584348 9:-0.752627 10:0.427606 
-1 1:0.778462 2:-0.472227 3:0.481865 4:-0.668394 5:-0.0745342 6:-0.688445 7:-0.57523 8:-0.447504 9:-0.707914 10:0.73103 
-1 1:0.372308 2:-0.478195 3:-0.0880829 4:-0.440415 5:0.198758 6:-0.732916 7:-0.567234 8:-0.419993 9:-0.750043 10:0.332871 
-1 1:0.28 2:-0.691226 3:0.15544 4:-0.761658 5:-0.977511 6:-0.626224 7:-0.625353 8:-0.632348 9:-0.770156 10:-0.0281957 
-1 1:-0.483077 2:-0.459014 3:-0.943005 4:-0.305699 5:-1 6:-0.729781 7:-0.654133 8:-0.652067 9:-0.714778 10:0.321875 
-1 1:-0.581538 2:-0.739678 3:-0.559585 4:-0.772021 5:-0.547826 6:-0.790609 7:-0.706783 8:-0.795824 9:-0.72536 10:0.70432 
