svm_type c_svc
kernel_type rbf
gamma 0.1
nr_class 2
total_sv 148
rho 0.146346
label 1 -1
nr_sv 73 75
SV
1 1:0.750547 2:-0.231891 3:0.529412 4:-0.102222 5:-0.774221 6:-0.753256 7:-0.646934 8:-0.636 9:-0.707666 10:-0.629669 
1 1:0.487965 2:-0.214433 3:0.202046 4:-0.0666667 5:-1 6:-0.577323 7:-0.57618 8:-0.697737 9:-0.677335 10:0.293712 
1 1:0.553611 2:-0.0814237 3:0.176471 4:0.111111 5:-0.992513 6:-0.314434 7:-0.278365 8:-0.391476 9:-0.415334 10:0.165786 
1 1:0.487965 2:-0.176445 3:0.150895 4:0.0222222 5:-0.998683 6:-0.368243 7:-0.315804 8:-0.268405 9:-0.605824 10:0.305038 
1 1:0.842451 2:-0.169398 3:0.636829 4:-0.102222 5:-0.997972 6:-0.684529 7:-0.572011 8:-0.558889 9:-0.694051 10:0.0667592 
1 1:-1 2:-1 3:-1 4:-1 5:-1 6:-0.429822 7:-0.796462 8:-0.773836 9:-0.638642 10:0.0173541 
1 1:0.943107 2:0.0698383 3:0.69821 4:-0.00444444 5:-0.978702 6:-0.263224 7:-0.392651 8:-0.417046 9:-0.290304 10:0.365357 
1 1:-0.334792 2:-0.309247 3:-0.759591 4:-0.0666667 5:-0.995231 6:-0.682542 7:-0.721502 8:-0.754933 9:-0.741956 10:0.331153 
1 1:0.247265 2:-0.184722 3:-0.0434783 4:-0.128889 5:-1 6:-0.435394 7:-0.311514 8:-0.547864 9:-0.530771 10:-0.403341 
1 1:0.5186 2:-0.165614 3:0.207161 4:-0.0133333 5:-0.979847 6:-0.546064 7:-0.515931 8:-0.567442 9:-0.438801 10:0.0280258 
1 1:0.588621 2:-0.138954 3:0.340153 4:-0.102222 5:-0.999066 6:-0.539831 7:-0.412437 8:-0.423595 9:-0.499878 10:-0.0992066 
1 1:1 2:-0.2336 3:0.820972 4:-0.102222 5:-1 6:-0.737417 7:-0.909209 8:-0.879589 9:-0.864562 10:0.0154376 
1 1:1 2:-0.152893 3:0.836317 4:-0.128889 5:-0.691912 6:-0.62104 7:-0.558121 8:-0.573748 9:-0.621555 10:0.0171139 
1 1:-0.352298 2:-0.315364 3:-0.851662 4:0.0577778 5:-0.950089 6:-0.758769 7:-0.783042 8:-0.82753 9:-0.823852 10:0.319347 
1 1:1 2:0.157343 3:0.677749 4:0.146667 5:-0.960633 6:-0.490578 7:-0.451453 8:-0.496609 9:-0.412371 10:-0.227077 
1 1:0.794311 2:0.109438 3:0.462916 4:0.102222 5:-0.996871 6:-0.339862 7:-0.472855 8:-0.481473 9:-0.450658 10:-0.078237 
1 1:1 2:-0.0422078 3:0.780051 4:-0.0311111 5:-0.872269 6:-0.459021 7:-0.410283 8:-0.550101 9:-0.70251 10:-0.327078 
1 1:1 2:0.176367 3:0.974425 4:-0.368889 5:-0.755319 6:-0.482152 7:-0.407854 8:-0.440968 9:-0.360639 10:-0.30097 
1 1:1 2:0.025387 3:0.800512 4:-0.0666667 5:-0.996488 6:-0.409943 7:-0.458313 8:-0.531201 9:-0.598419 10:-0.0367809 
1 1:0.0109409 2:-0.118211 3:-0.41688 4:0.04 5:-0.986194 6:-0.491991 7:-0.333349 8:-0.411104 9:-0.526758 10:-0.328644 
1 1:0.842451 2:-0.0740539 3:0.580563 4:-0.00444444 5:-0.956656 6:-0.654357 7:-0.540752 8:-0.59881 9:-0.627293 10:-0.0956511 
1 1:0.943107 2:0.0125928 3:0.754476 4:-0.102222 5:-0.993299 6:-0.570765 7:-0.454362 8:-0.436567 9:-0.425983 10:-0.176412 
1 1:0.943107 2:-0.107918 3:0.810742 4:-0.2 5:-0.953166 6:-0.540186 7:-0.516028 8:-0.425889 9:-0.652474 10:0.221258 
1 1:-0.0678337 2:-0.306852 3:-0.43734 4:-0.0844444 5:-0.999051 6:-0.663794 7:-0.680077 8:-0.723244 9:-0.703426 10:-0.0245611 
0.4782911275656794 1:0.943107 2:0.0117145 3:0.744246 4:-0.0844444 5:-0.663707 6:-0.434514 7:-0.385694 8:-0.483068 9:-0.243273 10:-0.291438 
1 1:1 2:-0.0627094 3:0.851662 4:-0.155556 5:-0.767886 6:-0.431844 7:-0.488569 8:-0.615193 9:-0.534054 10:0.282808 
1 1:0.750547 2:0.100405 3:0.636829 4:-0.288889 5:-0.889706 6:-0.674062 7:-0.513411 8:-0.511735 9:-0.58588 10:-0.259172 
1 1:0.943107 2:-0.0682613 3:0.667519 4:0.0488889 5:-0.998384 6:-0.509428 7:-0.434365 8:-0.481858 9:-0.501319 10:-0.0757252 
1 1:1 2:-0.132231 3:0.749361 4:0.0222222 5:-0.940299 6:-0.630031 7:-0.603577 8:-0.481265 9:-0.692569 10:-0.432868 
1 1:0.588621 2:-0.282394 3:0.345269 4:-0.111111 5:-0.912465 6:-0.650818 7:-0.747042 8:-0.829537 9:-0.832926 10:-0.0262213 
0.4195678827399024 1:-0.256018 2:-0.171746 3:-0.877238 4:0.297778 5:-0.986765 6:-0.0053494 7:0.180658 8:0.18843 9:0.0862439 10:0.490211 
1 1:0.628009 2:-0.0611695 3:0.314578 4:0.0222222 5:-0.990196 6:-0.429615 7:-0.250377 8:-0.222004 9:-0.345753 10:0.213725 
1 1:-1 2:-1 3:-1 4:-1 5:-1 6:-0.744624 7:-0.916376 8:-0.90102 9:-0.947748 10:0.481859 
1 1:0.553611 2:-0.165614 3:0.171355 4:0.12 5:-0.901961 6:-0.57833 7:-0.560964 8:-0.534855 9:-0.382186 10:-0.293477 
1 1:-1 2:-1 3:-1 4:-1 5:-1 6:-0.376667 7:-0.699285 8:-0.660557 9:-0.441218 10:0.43909 
1 1:1 2:0.0726584 3:0.872123 4:-0.191111 5:-0.99824 6:-0.37246 7:-0.381196 8:-0.291708 9:-0.355834 10:0.177856 
1 1:-0.247265 2:-0.239615 3:-0.672634 4:-0.04 5:-1 6:-0.343721 7:-0.37237 8:-0.576846 9:-0.421385 10:-0.312274 
1 1:0.588621 2:-0.131401 3:0.314578 4:-0.0577778 5:-0.979517 6:-0.680667 7:-0.548442 8:-0.522271 9:-0.628646 10:-0.169707 
1 1:1 2:0.0423951 3:0.73913 4:0.04 5:-0.995475 6:-0.46784 7:-0.569211 8:-0.581519 9:-0.521975 10:0.218567 
1 1:1 2:-0.313643 3:0.826087 4:-0.111111 5:-0.999109 6:-0.770877 7:-0.793194 8:-0.874194 9:-0.895574 10:-0.0683074 
1 1:0.890591 2:-0.277124 3:0.672634 4:-0.0666667 5:-0.974359 6:-0.59088 7:-0.532863 8:-0.593763 9:-0.645377 10:-0.386402 
1 1:0.66302 2:-0.152423 3:0.468031 4:-0.173333 5:-0.995722 6:-0.514147 7:-0.239934 8:-0.25818 9:-0.334815 10:0.120414 
1 1:0.269147 2:-0.227723 3:-0.00767263 4:-0.146667 5:-0.988688 6:-0.666704 7:-0.79413 8:-0.796214 9:-0.716008 10:0.442205 
1 1:-1 2:-1 3:-1 4:-1 5:-1 6:-0.592615 7:-0.924967 8:-0.871262 9:-0.827781 10:-0.32065 
1 1:-1 2:-1 3:-1 4:-1 5:-1 6:-0.335177 7:-0.592352 8:-0.658046 9:-0.174847 10:-0.0405365 
1 1:0.842451 2:-0.0316602 3:0.616368 4:-0.0666667 5:-0.886678 6:-0.580997 7:-0.629464 8:-0.685264 9:-0.520443 10:-0.168308 
1 1:0.706783 2:-0.108823 3:0.468031 4:-0.0844444 5:-0.981852 6:-0.627696 7:-0.680508 8:-0.736892 9:-0.667236 10:0.0431604 
1 1:0.943107 2:-0.133051 3:0.73913 4:-0.0755556 5:-0.964052 6:-0.638521 7:-0.51987 8:-0.547031 9:-0.527664 10:-0.157329 
1 1:1 2:0.0787508 3:0.897698 4:-0.235556 5:-0.776018 6:-0.705451 7:-0.557761 8:-0.625401 9:-0.606548 10:-0.593805 
1 1:-1 2:-1 3:-1 4:-1 5:-1 6:-0.560135 7:-0.922199 8:-0.859463 9:-0.909673 10:0.872621 
1 1:0.0765864 2:0.12797 3:-0.693095 4:0.653333 5:-0.970588 6:-0.476112 7:-0.868428 8:-0.772621 9:-0.748414 10:0.550726 
1 1:1 2:0.0796214 3:0.872123 4:-0.191111 5:-0.985294 6:-0.519254 7:-0.295841 8:-0.0863834 9:-0.405756 10:-0.0466598 
1 1:1 2:-0.129577 3:0.933504 4:-0.297778 5:-0.961601 6:-0.487219 7:-0.570223 8:-0.471717 9:-0.419588 10:-0.269467 
1 1:-1 2:-1 3:-1 4:-1 5:-1 6:-0.527099 7:-0.553249 8:-0.672036 9:-0.668214 10:-0.369903 
1 1:-1 2:-1 3:-1 4:-1 5:-1 6:-0.586316 7:-0.900641 8:-0.843367 9:-0.799146 10:-1 
1 1:0.107221 2:0.0355514 3:-0.345269 4:0.111111 5:-1 6:-0.42715 7:-0.654401 8:-0.604867 9:-0.461181 10:0.433968 
1 1:1 2:0.0906139 3:0.810742 4:-0.0844444 5:-0.998061 6:-0.480544 7:-0.444776 8:-0.463338 9:-0.558773 10:-0.306866 
1 1:-0.00218818 2:-0.0547521 3:-0.258312 4:-0.262222 5:-0.992215 6:-0.339396 7:-0.349382 8:-0.265873 9:-0.496433 10:-0.625246 
1 1:1 2:-0.0413912 3:0.846547 4:-0.146667 5:-0.943137 6:-0.470186 7:-0.361566 8:-0.365422 9:-0.343849 10:-0.145104 
1 1:0.943107 2:0.161192 3:0.744246 4:-0.0844444 5:-0.985628 6:-0.425623 7:-0.321481 8:-0.318103 9:-0.427571 10:-0.0267205 
1 1:0.269147 2:0.12376 3:-0.196931 4:0.182222 5:-0.98 6:-0.444061 7:-0.360186 8:-0.182024 9:-0.217952 10:0.0539628 
1 1:-1 2:-1 3:-1 4:-1 5:-1 6:-0.298447 7:-0.53623 8:-0.622387 9:-0.420578 10:0.273129 
1 1:1 2:-0.137253 3:0.820972 4:-0.102222 5:-0.99183 6:-0.67086 7:-0.488022 8:-0.537945 9:-0.607611 10:-0.236846 
1 1:1 2:0.174348 3:0.877238 4:-0.2 5:-0.793213 6:-0.453126 7:-0.271379 8:-0.453418 9:-0.422508 10:0.040638 
1 1:0.343545 2:-0.0827446 3:0.191816 4:-0.342222 5:-0.752372 6:-0.366243 7:-0.215853 8:-0.390981 9:-0.0100509 10:0.0957873 
1 1:0.66302 2:-0.131543 3:0.570332 4:-0.351111 5:-1 6:-0.546686 7:-0.67868 8:-0.675081 9:-0.579902 10:-0.217046 
1 1:0.943107 2:0.0628407 3:0.795396 4:-0.173333 5:-0.96965 6:-0.310732 7:-0.20391 8:-0.197899 9:-0.29551 10:0.316513 
1 1:0.842451 2:0.131919 3:0.636829 4:-0.102222 5:-0.98461 6:-0.340144 7:-0.247634 8:-0.235321 9:-0.291442 10:0.179407 
1 1:0.750547 2:0.00905445 3:0.606138 4:-0.235556 5:-0.831027 6:-0.544024 7:-0.380068 8:-0.346287 9:-0.29009 10:-0.381242 
1 1:0.943107 2:-0.00697314 3:0.749361 4:-0.0933333 5:-0.987337 6:-0.427465 7:-0.489657 8:-0.554266 9:-0.548899 10:-0.110484 
1 1:-1 2:-1 3:-1 4:-1 5:-1 6:-0.657396 7:-0.746343 8:-0.793505 9:-0.669605 10:0.0124053 
1 1:1 2:0.148129 3:0.938619 4:-0.306667 5:-0.976035 6:-0.474697 7:-0.365531 8:-0.183141 9:-0.346793 10:-0.243338 
1 1:-1 2:-1 3:-1 4:-1 5:-1 6:-0.507877 7:-0.803576 8:-0.777877 9:-0.620931 10:-0.439087 
-1 1:1 2:0.321917 3:0.953964 4:-0.333333 5:-0.651584 6:-0.802501 7:-0.664938 8:-0.681183 9:-0.709369 10:-0.471257 
-1 1:-1 2:-1 3:-1 4:-1 5:-1 6:-0.758792 7:-0.696868 8:-0.802401 9:-0.638541 10:-0.268925 
-1 1:0.343545 2:-0.312261 3:0.227621 4:-0.404444 5:-0.965567 6:-0.789154 7:-0.649986 8:-0.625158 9:-0.709831 10:-0.0525134 
-1 1:1 2:-0.112052 3:0.913043 4:-0.262222 5:-0.942745 6:-0.670044 7:-0.488738 8:-0.52566 9:-0.588181 10:0.0949171 
-1 1:1 2:0.00912292 3:0.948849 4:-0.324444 5:-0.746479 6:-0.810964 7:-0.683828 8:-0.716019 9:-0.718359 10:-0.134024 
-1 1:1 2:-0.144594 3:0.841432 4:-0.137778 5:-0.831726 6:-0.782471 7:-0.562421 8:-0.476381 9:-0.711801 10:-0.235997 
-1 1:-1 2:-1 3:-1 4:-1 5:-1 6:-0.486228 7:-0.332804 8:-0.450205 9:-0.580481 10:0.40096 
-0.3158603634717915 1:-1 2:-1 3:-1 4:-1 5:-1 6:-0.670433 7:-0.956418 8:-0.88335 9:-0.610027 10:-0.0377712 
-1 1:-0.0809628 2:-0.311725 3:-0.43734 4:-0.111111 5:-1 6:-0.465682 7:-0.529036 8:-0.638874 9:-0.301609 10:0.236096 
-0.3524731557090934 1:1 2:0.419421 3:0.70844 4:0.0933333 5:1 6:-0.800475 7:-0.73213 8:-0.817087 9:-0.652845 10:0.396422 
-1 1:-0.146608 2:-0.243693 3:-0.44757 4:-0.226667 5:-1 6:-0.568686 7:-0.496678 8:-0.640803 9:-0.414782 10:0.368048 
-1 1:1 2:0.0932028 3:0.923274 4:-0.28 5:-0.823031 6:-0.80761 7:-0.697491 8:-0.576289 9:-0.613789 10:-0.12335 
-1 1:-1 2:-1 3:-1 4:-1 5:-1 6:-0.460994 7:-0.686891 8:-0.767515 9:-0.394873 10:-0.126249 
-1 1:-0.501094 2:-0.440212 3:-0.933504 4:-0.102222 5:-1 6:-0.733976 7:-0.723797 8:-0.745017 9:-0.590543 10:0.0492516 
-0.3734022061612115 1:-1 2:-1 3:-1 4:-1 5:-1 6:-0.634115 7:-0.502603 8:-0.611809 9:-0.484073 10:0.271597 
-1 1:-1 2:-1 3:-1 4:-1 5:-1 6:-0.494958 7:-0.426885 8:-0.383848 9:-0.488962 10:0.0179947 
-1 1:1 2:-0.177686 3:0.897698 4:-0.235556 5:-0.871429 6:-0.629835 7:-0.390944 8:-0.368849 9:-0.473054 10:0.16231 
-0.2036852439003938 1:-0.185996 2:-0.358055 3:-0.626598 4:0.00444444 5:-0.978838 6:-0.816157 7:-0.753778 8:-0.73339 9:-0.871034 10:-0.0862153 
-1 1:1 2:1 3:0.785166 4:-0.04 5:-1 6:-0.609719 7:-0.816583 8:-0.827458 9:-0.254958 10:-0.0981869 
-1 1:-1 2:-1 3:-1 4:-1 5:-1 6:-0.301181 7:-0.532419 8:-0.560764 9:-0.215137 10:-0.372884 
-1 1:1 2:-0.0764654 3:0.984655 4:-0.386667 5:-0.925654 6:-0.635798 7:-0.567723 8:-0.546237 9:-0.563267 10:0.294924 
-1 1:1 2:0.237948 3:0.959079 4:-0.342222 5:-0.99183 6:-0.808696 7:-0.819025 8:-0.863394 9:-0.758361 10:-0.245748 
-1 1:1 2:0.172521 3:0.938619 4:-0.306667 5:-1 6:-0.609143 7:-0.551708 8:-0.64601 9:-0.463672 10:0.310982 
-1 1:1 2:-0.0809372 3:0.867008 4:-0.182222 5:-0.772059 6:-0.722846 7:-0.579374 8:-0.53734 9:-0.718217 10:-0.352134 
-1 1:-1 2:-1 3:-1 4:-1 5:-1 6:-0.516536 7:-0.46337 8:-0.57879 9:-0.0833342 10:0.0369144 
-1 1:-0.479212 2:-0.428719 3:-0.907928 4:-0.102222 5:-1 6:-0.491482 7:-0.641922 8:-0.672092 9:-0.160052 10:0.270503 
-1 1:0.66302 2:-0.262225 3:0.514066 4:-0.253333 5:-1 6:-0.666933 7:-0.66146 8:-0.739451 9:-0.714535 10:-0.102976 
-1 1:0.628009 2:-0.043365 3:0.381074 4:-0.0933333 5:-0.855615 6:-0.740299 7:-0.702764 8:-0.773824 9:-0.795863 10:-0.0302412 
-0.6524380410630917 1:0.750547 2:-0.190857 3:0.595908 4:-0.217778 5:-0.991912 6:-0.643001 7:-0.594082 8:-0.50399 9:-0.78888 10:0.430578 
-1 1:0.943107 2:-0.143032 3:0.887468 4:-0.333333 5:-0.90107 6:-0.565182 7:-0.507815 8:-0.625834 9:-0.462512 10:-0.254752 
-1 1:0.553611 2:-0.187514 3:0.365729 4:-0.217778 5:-0.995231 6:-0.670729 7:-0.512452 8:-0.606374 9:-0.710099 10:0.124324 
-1 1:1 2:-0.0721849 3:0.810742 4:-0.0844444 5:-1 6:-0.647217 7:-0.408961 8:-0.347907 9:-0.635309 10:0.0619252 
-1 1:-0.483589 2:-0.415461 3:-0.943734 4:-0.0488889 5:-1 6:-0.367462 7:-0.637711 8:-0.688123 9:-0.713842 10:0.284364 
-1 1:0.943107 2:-0.114051 3:0.805627 4:-0.191111 5:-0.792265 6:-0.549396 7:-0.49746 8:-0.582357 9:-0.611089 10:0.0677121 
-1 1:0.269147 2:0.00284091 3:-0.0332481 4:-0.102222 5:-0.871324 6:-0.48007 7:-0.342335 8:-0.30165 9:-0.493271 10:-0.136771 
-1 1:-0.352298 2:-0.350207 3:-0.810742 4:-0.0133333 5:-1 6:-0.471952 7:-0.553627 8:-0.6748 9:-0.688165 10:0.464773 
-1 1:1 2:-0.0979774 3:0.820972 4:-0.102222 5:-1 6:-0.414313 7:-0.487076 8:-0.488233 9:-0.54544 10:-0.198433 
-1 1:0.890591 2:-0.121532 3:0.677749 4:-0.0755556 5:-0.941176 6:-0.766403 7:-0.529191 8:-0.473717 9:-0.783741 10:0.42506 
-1 1:0.943107 2:-0.202322 3:0.841432 4:-0.253333 5:-0.976917 6:-0.768754 7:-0.635661 8:-0.66282 9:-0.757455 10:0.0919622 
-1 1:0.842451 2:-0.0076188 3:0.652174 4:-0.128889 5:-0.994485 6:-0.61412 7:-0.674418 8:-0.732716 9:-0.732211 10:0.135778 
-1 1:0.890591 2:-0.174538 3:0.759591 4:-0.217778 5:-0.878501 6:-0.608155 7:-0.520147 8:-0.626615 9:-0.680896 10:-0.10434 
-1 1:0.129103 2:-0.0845518 3:-0.248082 4:-0.0133333 5:-1 6:-0.732913 7:-0.915905 8:-0.894905 9:-0.892414 10:-0.666785 
-1 1:1 2:-0.217615 3:0.810742 4:-0.0844444 5:-1 6:-0.560786 7:-0.612956 8:-0.7001 9:-0.78729 10:0.405425 
-1 1:-0.177243 2:-0.270879 3:-0.554987 4:-0.102222 5:-1 6:-0.381158 7:-0.506906 8:-0.513971 9:-0.466616 10:0.117494 
-1 1:-0.21663 2:-0.205172 3:-0.744246 4:0.146667 5:-0.994652 6:-0.796731 7:-0.736294 8:-0.835409 9:-0.718284 10:-0.0835488 
-1 1:0.706783 2:-0.356236 3:0.42711 4:-0.0133333 5:-0.996399 6:-0.387894 7:-0.541555 8:-0.663454 9:-0.638803 10:0.00492343 
-1 1:0.146608 2:-0.331525 3:-0.12532 4:-0.191111 5:-0.981209 6:-0.770094 7:-0.674562 8:-0.759788 9:-0.721184 10:-0.160404 
-1 1:0.164114 2:0.126771 3:-0.294118 4:0.137778 5:-1 6:-0.757133 7:-0.575052 8:-0.720606 9:-0.680733 10:0.37829 
-1 1:0.0284464 2:-0.048111 3:-0.396419 4:0.04 5:-1 6:-0.438185 7:-0.460158 8:-0.590065 9:-0.499286 10:0.34439 
-1 1:0.628009 2:-0.297419 3:0.411765 4:-0.146667 5:-0.873702 6:-0.645484 7:-0.685339 8:-0.711466 9:-0.87171 10:-0.18592 
-1 1:0.706783 2:-0.166243 3:0.590793 4:-0.297778 5:-0.940045 6:-0.56011 7:-0.488545 8:-0.602405 9:-0.631481 10:0.243789 
-1 1:0.750547 2:-0.252866 3:0.626598 4:-0.271111 5:-0.960152 6:-0.755029 7:-0.682172 8:-0.67491 9:-0.775852 10:-0.0571259 
-1 1:1 2:-0.17671 3:1 4:-0.413333 5:-0.97313 6:-0.627093 7:-0.481155 8:-0.411957 9:-0.660144 10:0.312885 
-1 1:1 2:-0.161219 3:0.831202 4:-0.12 5:-0.921146 6:-0.686622 7:-0.620956 8:-0.679995 9:-0.7553 10:0.0757572 
-1 1:0.943107 2:-0.11574 3:0.795396 4:-0.173333 5:-0.885897 6:-0.548148 7:-0.543144 8:-0.505874 9:-0.477259 10:0.199661 
-1 1:0.588621 2:-0.137264 3:0.355499 4:-0.128889 5:-0.977376 6:-0.457884 7:-0.592988 8:-0.685296 9:-0.580378 10:0.436802 
-1 1:0.842451 2:-0.107352 3:0.703325 4:-0.217778 5:-0.978431 6:-0.75544 7:-0.605812 8:-0.66095 9:-0.753415 10:-0.145566 
-1 1:0.0765864 2:-0.254282 3:-0.253197 4:-0.111111 5:-0.966319 6:-0.659256 7:-0.57193 8:-0.443935 9:-0.684823 10:-0.409349 
-1 1:-1 2:-1 3:-1 4:-1 5:-1 6:-0.35841 7:-0.524791 8:-0.597661 9:-0.524476 10:-0.016927 
-1 1:-0.185996 2:-0.204416 3:-0.41688 4:-0.36 5:-0.977206 6:-0.713589 7:-0.668012 8:-0.717586 9:-0.647505 10:-0.0462781 
-1 1:0.943107 2:-0.140541 3:0.759591 4:-0.111111 5:-0.997442 6:-0.502936 7:-0.327141 8:-0.265618 9:-0.498566 10:0.371705 
-1 1:-0.0415755 2:-0.375795 3:-0.391304 4:-0.111111 5:-1 6:-0.681355 7:-0.883349 8:-0.868117 9:-0.72719 10:-0.270481 
-1 1:-1 2:-1 3:-1 4:-1 5:-1 6:-0.00170834 7:-0.413578 8:-0.486558 9:-0.358031 10:-0.249317 
-1 1:0.794311 2:-0.272295 3:0.631714 4:-0.191111 5:-0.999316 6:-0.641305 7:-0.439938 8:-0.554584 9:-0.705451 10:0.183237 
-1 1:0.943107 2:0.0155838 3:0.846547 4:-0.262222 5:-0.998123 6:-0.426147 7:-0.352768 8:-0.410403 9:-0.430102 10:-0.0410143 
-1 1:0.943107 2:-0.157397 3:0.790281 4:-0.164444 5:-0.94528 6:-0.705765 7:-0.605892 8:-0.675473 9:-0.670685 10:0.0185259 
-1 1:1 2:0.140791 3:0.846547 4:-0.146667 5:-0.839076 6:-0.691074 7:-0.605853 8:-0.707964 9:-0.685403 10:0.213285 
-1 1:1 2:-0.264098 3:0.846547 4:-0.146667 5:-0.928077 6:-0.584299 7:-0.586484 8:-0.608851 9:-0.709695 10:0.170537 
-1 1:1 2:0.229339 3:0.97954 4:-0.377778 5:-0.91629 6:-0.660179 7:-0.411982 8:-0.505939 9:-0.626676 10:-0.282533 
-1 1:0.750547 2:-0.158455 3:0.554987 4:-0.146667 5:-0.980204 6:-0.770047 7:-0.555835 8:-0.56712 9:-0.681874 10:0.355174 
-1 1:1 2:-0.0411747 3:0.892583 4:-0.226667 5:-0.911485 6:-0.667562 7:-0.472986 8:-0.375866 9:-0.6672 10:0.341969 
-1 1:1 2:0.0466277 3:0.856777 4:-0.164444 5:-0.770189 6:-0.567518 7:-0.389198 8:-0.349717 9:-0.589081 10:0.00894064 
-1 1:0.842451 2:-0.0211777 3:0.682864 4:-0.182222 5:-0.992375 6:-0.608619 7:-0.52055 8:-0.551563 9:-0.727381 10:-0.250927 
-1 1:1 2:0.257808 3:0.907928 4:-0.253333 5:-0.906293 6:-0.673744 7:-0.538976 8:-0.570306 9:-0.656156 10:0.0185393 
-1 1:-0.185996 2:-0.0819559 3:-0.933504 4:0.537778 5:-1 6:-0.596321 7:-0.617361 8:-0.646273 9:-0.565892 10:0.313307 
